digraph Tree {
node [shape=box, style="filled, rounded", color="black", fontname=helvetica] ;
edge [fontname=helvetica] ;
0 [label="P. ESI <= 0.46\nentropy = 1.579\nsamples = 48\nvalue = [17, 14, 17]\nclass = P", fillcolor="#ffffff"] ;
1 [label="entropy = 0.0\nsamples = 14\nvalue = [0, 14, 0]\nclass = .", fillcolor="#39e581"] ;
0 -> 1 [labeldistance=2.5, labelangle=45, headlabel="True"] ;
2 [label="P. SFlux Min (EU) <= 0.704\nentropy = 1.0\nsamples = 34\nvalue = [17, 0, 17]\nclass = P", fillcolor="#ffffff"] ;
0 -> 2 [labeldistance=2.5, labelangle=-45, headlabel="False"] ;
3 [label="P. SPH <= 0.125\nentropy = 0.31\nsamples = 18\nvalue = [1, 0, 17]\nclass =  ", fillcolor="#8845e7"] ;
2 -> 3 ;
4 [label="entropy = 0.0\nsamples = 17\nvalue = [0, 0, 17]\nclass =  ", fillcolor="#8139e5"] ;
3 -> 4 ;
5 [label="entropy = 0.0\nsamples = 1\nvalue = [1, 0, 0]\nclass = P", fillcolor="#e58139"] ;
3 -> 5 ;
6 [label="entropy = 0.0\nsamples = 16\nvalue = [16, 0, 0]\nclass = P", fillcolor="#e58139"] ;
2 -> 6 ;
}